solver_type L2R_LR
nr_class 2
label 0 1
nr_feature 118
bias -1.000000000000000
w
0.1024150787817749 
0.001932619391654973 
0.02983855996863239 
-0.2187078442851627 
-0.002138364749061853 
-0.02138405604099047 
-0.08294039043494200 
0.06776550833112929 
-0.1095230351522254 
-0.07181418435706664 
-0.2304621096186771 
-0.01130590710896719 
0.01110314954997316 
-0.04036730781831607 
0.04346196216423504 
-0.01297415773660134 
-0.1286396190062389 
-0.2747154169681524 
-0.1580545547839849 
-0.06085286186231984 
-0.06519904603489911 
0.001687513575597638 
0.009674010101451011 
-0.1089742105904769 
-0.005619303795283367 
-0.07220632131336620 
-0.06168330869622565 
-0.07659864238265764 
-0.002980935300870493 
-0.01899805492813221 
0.0002610813393714173 
0.1184138614521536 
0.2011319763670998 
-0.009696471017819710 
0.03447306929295136 
-0.3127190991149335 
-0.008892235348807663 
0.04115340950406916 
0.005164629492972857 
-0.02518963424223512 
0.002261225264563424 
0.1001410313520015 
0.03661307846341030 
0.06900649728521448 
0.03732888511253818 
-0.1552073867177779 
0.09421499875982738 
-0.1623704802118255 
-0.1623641263496254 
-0.07019758799982943 
-0.09216063814083517 
-0.0008028538848573611 
-0.1552191571860489 
0.05798379351046062 
-0.04841001375093228 
0.01004026524000244 
-0.3841544257087676 
-0.06325407607029750 
-0.1613487053314314 
-0.07346198940306713 
0.04697099678233670 
-0.01831337939669826 
-0.09250148280498405 
-0.003725570130609798 
-0.1616702532717892 
-0.09577441826453092 
0.03592314485261808 
0.04043656677607563 
-0.05956051701652383 
0.04772584444892803 
-0.2418759065876229 
-0.1685959922359024 
-0.2357047140890839 
0.6406412547062100 
0.7390250824100582 
0.3316148521708082 
0.4432346199622647 
0.2856479688748537 
0.3735080361401847 
0.2517795714557642 
0.4382525556453846 
0.4450910125681980 
0.3363777108191779 
0.2201120040901641 
0.2906735459532327 
0.4115400366571720 
0.2808843603907473 
0.2319885845443606 
0.1539410003120346 
0.2343584416223343 
0.2888700618181723 
-0.3610402484564482 
0.2731949152133864 
-0.3216524010225774 
0.2280284371640998 
0.1504768850937494 
-0.1213261562141342 
0.3372472400259027 
0.1684446219290414 
-0.2187078442851627 
-0.2980614114932333 
0.5129926253907460 
0.3326847382749377 
-0.2033835951940426 
-0.1424473267714495 
-0.3542383983643024 
0.2144248294108579 
0.2278956741900858 
0.4521269875959771 
-0.1897228537014488 
-0.1758299801739710 
0.4500101424463068 
0.09108915686681143 
-0.2158840303123429 
-0.2028915880137875 
0.2011319763670998 
0.1565899918099335 
-0.1948673649878507 
